{
    "learner": {
        "attributes": {
            "best_iteration": "99",
            "best_ntree_limit": "100",
            "scikit_learn": "{\"use_label_encoder\": null, \"n_estimators\": 100, \"objective\": \"binary:logistic\", \"max_depth\": null, \"max_leaves\": null, \"max_bin\": null, \"grow_policy\": null, \"learning_rate\": null, \"verbosity\": null, \"booster\": null, \"tree_method\": null, \"gamma\": null, \"min_child_weight\": null, \"max_delta_step\": null, \"subsample\": null, \"sampling_method\": null, \"colsample_bytree\": null, \"colsample_bylevel\": null, \"colsample_bynode\": null, \"reg_alpha\": null, \"reg_lambda\": null, \"scale_pos_weight\": null, \"base_score\": null, \"missing\": NaN, \"num_parallel_tree\": null, \"random_state\": 1337, \"n_jobs\": null, \"monotone_constraints\": null, \"interaction_constraints\": null, \"importance_type\": null, \"gpu_id\": null, \"validate_parameters\": null, \"predictor\": null, \"enable_categorical\": false, \"feature_types\": null, \"max_cat_to_onehot\": null, \"max_cat_threshold\": null, \"eval_metric\": null, \"early_stopping_rounds\": null, \"callbacks\": null, \"kwargs\": {\"estimators\": 100}, \"classes_\": [0, 1], \"n_classes_\": 2, \"_estimator_type\": \"classifier\"}"
        },
        "feature_names": [
            "AGE",
            "ATCD_CONSO_ALCOOL",
            "ATCD_DIABETE",
            "ATCD_HTA",
            "BIO_CPK",
            "BIO_CRP",
            "BIO_LDL",
            "BIO_NTPROBNP",
            "BIO_POTASSIUM",
            "BIO_HBA1C",
            "BIO_TROPONINE",
            "BIO_TSH3G",
            "ECPL_BIO_NTPROBNP",
            "ETIO_TOAST",
            "ICI_ASPECT",
            "ICI_IRM_NONLAC_D_ACM",
            "ICI_SWAN_THROMBUS",
            "NIHSS_INITIAL",
            "ICI_IRM_LAC",
            "SEXE",
            "UNITE_ALCOOL/SEM"
        ],
        "feature_types": [
            "float",
            "float",
            "float",
            "float",
            "float",
            "float",
            "float",
            "float",
            "float",
            "float",
            "float",
            "float",
            "float",
            "float",
            "float",
            "float",
            "float",
            "float",
            "float",
            "float",
            "float"
        ],
        "gradient_booster": {
            "model": {
                "gbtree_model_param": {
                    "num_parallel_tree": "1",
                    "num_trees": "100",
                    "size_leaf_vector": "0"
                },
                "tree_info": [
                    0,
                    0,
                    0,
                    0,
                    0,
                    0,
                    0,
                    0,
                    0,
                    0,
                    0,
                    0,
                    0,
                    0,
                    0,
                    0,
                    0,
                    0,
                    0,
                    0,
                    0,
                    0,
                    0,
                    0,
                    0,
                    0,
                    0,
                    0,
                    0,
                    0,
                    0,
                    0,
                    0,
                    0,
                    0,
                    0,
                    0,
                    0,
                    0,
                    0,
                    0,
                    0,
                    0,
                    0,
                    0,
                    0,
                    0,
                    0,
                    0,
                    0,
                    0,
                    0,
                    0,
                    0,
                    0,
                    0,
                    0,
                    0,
                    0,
                    0,
                    0,
                    0,
                    0,
                    0,
                    0,
                    0,
                    0,
                    0,
                    0,
                    0,
                    0,
                    0,
                    0,
                    0,
                    0,
                    0,
                    0,
                    0,
                    0,
                    0,
                    0,
                    0,
                    0,
                    0,
                    0,
                    0,
                    0,
                    0,
                    0,
                    0,
                    0,
                    0,
                    0,
                    0,
                    0,
                    0,
                    0,
                    0,
                    0,
                    0
                ],
                "trees": [
                    {
                        "base_weights": [
                            -1.754717E0,
                            -1.8103093E0,
                            -1.106383E0,
                            -1.931559E0,
                            -1.6517857E0,
                            -1.3939394E0,
                            -3.75E-1,
                            -8.2539684E-1,
                            -1.9509202E0,
                            -5.882353E-1,
                            -1.5471698E0,
                            5E-1,
                            -1E0,
                            -1.6875E0,
                            6.0606062E-2,
                            5E-1,
                            -1.0769231E0,
                            -4E-1,
                            1.2E0,
                            -0E0,
                            -1.25E0,
                            -4E-1,
                            -1.7931035E0,
                            1.1578947E0,
                            -3.529412E-1,
                            -1.8518518E0,
                            -5E-1,
                            -0E0,
                            1.4666667E0,
                            -5.531915E-1,
                            1E0
                        ],
                        "categories": [],
                        "categories_nodes": [],
                        "categories_segments": [],
                        "categories_sizes": [],
                        "default_left": [
                            1,
                            1,
                            1,
                            0,
                            1,
                            1,
                            1,
                            1,
                            0,
                            1,
                            0,
                            1,
                            1,
                            1,
                            1,
                            0,
                            0,
                            0,
                            0,
                            0,
                            0,
                            0,
                            1,
                            1,
                            1,
                            0,
                            0,
                            0,
                            0,
                            0,
                            0
                        ],
                        "id": 0,
                        "left_children": [
                            1,
                            3,
                            5,
                            -1,
                            7,
                            9,
                            11,
                            13,
                            -1,
                            15,
                            -1,
                            17,
                            19,
                            21,
                            23,
                            -1,
                            -1,
                            -1,
                            -1,
                            -1,
                            -1,
                            -1,
                            25,
                            27,
                            29,
                            -1,
                            -1,
                            -1,
                            -1,
                            -1,
                            -1
                        ],
                        "loss_changes": [
                            7.548279E0,
                            1.47052E0,
                            4.419651E0,
                            0E0,
                            2.6076294E1,
                            1.1269608E0,
                            4.875E0,
                            2.416279E1,
                            0E0,
                            2.7986426E0,
                            0E0,
                            3E0,
                            1.25E0,
                            1.4581909E0,
                            7.8960505E0,
                            0E0,
                            0E0,
                            0E0,
                            0E0,
                            0E0,
                            0E0,
                            0E0,
                            1.7560577E-1,
                            1.6982455E0,
                            4.007509E0,
                            0E0,
                            0E0,
                            0E0,
                            0E0,
                            0E0,
                            0E0
                        ],
                        "parents": [
                            2147483647,
                            0,
                            0,
                            1,
                            1,
                            2,
                            2,
                            4,
                            4,
                            5,
                            5,
                            6,
                            6,
                            7,
                            7,
                            9,
                            9,
                            11,
                            11,
                            12,
                            12,
                            13,
                            13,
                            14,
                            14,
                            22,
                            22,
                            23,
                            23,
                            24,
                            24
                        ],
                        "right_children": [
                            2,
                            4,
                            6,
                            -1,
                            8,
                            10,
                            12,
                            14,
                            -1,
                            16,
                            -1,
                            18,
                            20,
                            22,
                            24,
                            -1,
                            -1,
                            -1,
                            -1,
                            -1,
                            -1,
                            -1,
                            26,
                            28,
                            30,
                            -1,
                            -1,
                            -1,
                            -1,
                            -1,
                            -1
                        ],
                        "split_conditions": [
                            4.8804963E-1,
                            1.5E0,
                            1.2423E0,
                            -5.794677E-1,
                            3E0,
                            -9.8472947E-1,
                            8.864E1,
                            -2.628592E-1,
                            -5.8527607E-1,
                            -6.4396036E-1,
                            -4.6415097E-1,
                            2.036983E-1,
                            6.469E1,
                            -2.1731572E0,
                            2.036983E-1,
                            1.5E-1,
                            -3.2307696E-1,
                            -1.20000005E-1,
                            3.6E-1,
                            -0E0,
                            -3.75E-1,
                            -1.20000005E-1,
                            1.159E1,
                            5.886E1,
                            1.6E1,
                            -5.555556E-1,
                            -1.5E-1,
                            -0E0,
                            4.4000003E-1,
                            -1.6595745E-1,
                            3E-1
                        ],
                        "split_indices": [
                            12,
                            13,
                            0,
                            0,
                            13,
                            14,
                            4,
                            0,
                            0,
                            6,
                            0,
                            14,
                            5,
                            14,
                            14,
                            0,
                            0,
                            0,
                            0,
                            0,
                            0,
                            0,
                            8,
                            11,
                            8,
                            0,
                            0,
                            0,
                            0,
                            0,
                            0
                        ],
                        "split_type": [
                            0,
                            0,
                            0,
                            0,
                            0,
                            0,
                            0,
                            0,
                            0,
                            0,
                            0,
                            0,
                            0,
                            0,
                            0,
                            0,
                            0,
                            0,
                            0,
                            0,
                            0,
                            0,
                            0,
                            0,
                            0,
                            0,
                            0,
                            0,
                            0,
                            0,
                            0
                        ],
                        "sum_hessian": [
                            2.64E2,
                            2.415E2,
                            2.25E1,
                            1.305E2,
                            1.11E2,
                            1.55E1,
                            7E0,
                            3.05E1,
                            8.05E1,
                            3.25E0,
                            1.225E1,
                            3E0,
                            4E0,
                            1.5E1,
                            1.55E1,
                            1E0,
                            2.25E0,
                            1.5E0,
                            1.5E0,
                            1E0,
                            3E0,
                            1.5E0,
                            1.35E1,
                            3.75E0,
                            1.175E1,
                            1.25E1,
                            1E0,
                            1E0,
                            2.75E0,
                            1.075E1,
                            1E0
                        ],
                        "tree_param": {
                            "num_deleted": "0",
                            "num_feature": "21",
                            "num_nodes": "31",
                            "size_leaf_vector": "0"
                        }
                    },
                    {
                        "base_weights": [
                            -1.3462092E0,
                            -1.3696729E0,
                            -4.157804E-1,
                            -1.3786334E0,
                            -5.064648E-2,
                            -9.7287387E-1,
                            5.342968E-1,
                            -1.4904159E0,
                            -1.2336746E0,
                            -1.215881E0,
                            -1.1289308E-1,
                            -4.615326E-1,
                            1.2802978E0,
                            -8.737777E-1,
                            -1.5097479E0,
                            -5.5775535E-1,
                            -1.5147833E0,
                            -1.246328E0,
                            2.5731298E-1,
                            -1.329684E0,
                            9.72103E-2,
                            -1.5271988E0,
                            -5.7663614E-1,
                            -3.287948E-1,
                            -1.4127465E0,
                            8.5502964E-1,
                            -2.1929419E-1
                        ],
                        "categories": [],
                        "categories_nodes": [],
                        "categories_segments": [],
                        "categories_sizes": [],
                        "default_left": [
                            1,
                            1,
                            1,
                            1,
                            0,
                            1,
                            1,
                            1,
                            1,
                            0,
                            0,
                            0,
                            0,
                            1,
                            0,
                            1,
                            1,
                            0,
                            0,
                            1,
                            1,
                            0,
                            0,
                            0,
                            0,
                            0,
                            0
                        ],
                        "id": 1,
                        "left_children": [
                            1,
                            3,
                            5,
                            7,
                            -1,
                            9,
                            11,
                            13,
                            15,
                            -1,
                            -1,
                            -1,
                            -1,
                            17,
                            -1,
                            19,
                            21,
                            -1,
                            -1,
                            23,
                            25,
                            -1,
                            -1,
                            -1,
                            -1,
                            -1,
                            -1
                        ],
                        "loss_changes": [
                            4.8032837E0,
                            2.7621765E0,
                            4.4838424E0,
                            2.017212E0,
                            0E0,
                            9.234524E-1,
                            3.1269896E0,
                            2.2512817E-1,
                            1.994374E1,
                            0E0,
                            0E0,
                            0E0,
                            0E0,
                            2.9804564E0,
                            0E0,
                            1.7177574E1,
                            1.260376E-2,
                            0E0,
                            0E0,
                            8.279362E-1,
                            4.7864046E0,
                            0E0,
                            0E0,
                            0E0,
                            0E0,
                            0E0,
                            0E0
                        ],
                        "parents": [
                            2147483647,
                            0,
                            0,
                            1,
                            1,
                            2,
                            2,
                            3,
                            3,
                            5,
                            5,
                            6,
                            6,
                            7,
                            7,
                            8,
                            8,
                            13,
                            13,
                            15,
                            15,
                            16,
                            16,
                            19,
                            19,
                            20,
                            20
                        ],
                        "right_children": [
                            2,
                            4,
                            6,
                            8,
                            -1,
                            10,
                            12,
                            14,
                            16,
                            -1,
                            -1,
                            -1,
                            -1,
                            18,
                            -1,
                            20,
                            22,
                            -1,
                            -1,
                            24,
                            26,
                            -1,
                            -1,
                            -1,
                            -1,
                            -1,
                            -1
                        ],
                        "split_conditions": [
                            1.2246788E0,
                            1.595E2,
                            5.3094035E-1,
                            1.5E0,
                            -1.5193945E-2,
                            5E-1,
                            8.467E1,
                            1.85E1,
                            3E0,
                            -3.647643E-1,
                            -3.3867925E-2,
                            -1.3845979E-1,
                            3.8408935E-1,
                            1.35E1,
                            -4.5292437E-1,
                            -2.628592E-1,
                            1.34E2,
                            -3.7389842E-1,
                            7.71939E-2,
                            -2.1731572E0,
                            2.036983E-1,
                            -4.5815966E-1,
                            -1.7299084E-1,
                            -9.8638445E-2,
                            -4.2382398E-1,
                            2.5650892E-1,
                            -6.578826E-2
                        ],
                        "split_indices": [
                            12,
                            5,
                            17,
                            13,
                            0,
                            3,
                            4,
                            4,
                            13,
                            0,
                            0,
                            0,
                            0,
                            4,
                            0,
                            0,
                            5,
                            0,
                            0,
                            14,
                            14,
                            0,
                            0,
                            0,
                            0,
                            0,
                            0
                        ],
                        "split_type": [
                            0,
                            0,
                            0,
                            0,
                            0,
                            0,
                            0,
                            0,
                            0,
                            0,
                            0,
                            0,
                            0,
                            0,
                            0,
                            0,
                            0,
                            0,
                            0,
                            0,
                            0,
                            0,
                            0,
                            0,
                            0,
                            0,
                            0
                        ],
                        "sum_hessian": [
                            2.451029E2,
                            2.3861343E2,
                            6.4894676E0,
                            2.3695853E2,
                            1.6549107E0,
                            4.0756493E0,
                            2.4138186E0,
                            1.2854865E2,
                            1.08409874E2,
                            2.8550446E0,
                            1.2206044E0,
                            1.1971196E0,
                            1.216699E0,
                            5.311901E0,
                            1.2323675E2,
                            3.2719856E1,
                            7.569002E1,
                            3.9191568E0,
                            1.3927444E0,
                            1.45460415E1,
                            1.8173817E1,
                            7.4081726E1,
                            1.6082938E0,
                            1.4946129E0,
                            1.3051428E1,
                            4.8528843E0,
                            1.3320931E1
                        ],
                        "tree_param": {
                            "num_deleted": "0",
                            "num_feature": "21",
                            "num_nodes": "27",
                            "size_leaf_vector": "0"
                        }
                    },
                    {
                        "base_weights": [
                            -1.1362327E0,
                            -1.1827304E0,
                            -6.5601116E-1,
                            -9.740285E-1,
                            -1.254609E0,
                            -8.8330555E-1,
                            -1.2935497E-1,
                            -1.0160635E0,
                            5.4511935E-1,
                            -1.2660058E0,
                            -2.0420463E-1,
                            -1.0737181E0,
                            -3.1927508E-1,
                            7.6321816E-1,
                            -4.7122264E-1,
                            -1.1745623E0,
                            -7.4044615E-1,
                            -4.874326E-1,
                            -1.2776275E0,
                            -4.207135E-1,
                            -1.2640623E0,
                            -8.4699273E-1,
                            6.0108554E-1,
                            -7.4472535E-1,
                            -1.9654935E-2,
                            -1.1975226E0,
                            -2.4536492E-1,
                            8.833032E-3,
                            -9.078806E-1,
                            -8.4191656E-1,
                            1.9384286E-1,
                            -9.1502976E-1,
                            3.8935104E-1,
                            -4.3646935E-2,
                            -1.0281153E0,
                            -7.5921035E-1,
                            6.79004E-1,
                            -1.2577453E0,
                            -5.652543E-1,
                            -7.2984606E-1,
                            7.217494E-1,
                            -1.1008095E0,
                            6.870876E-2
                        ],
                        "categories": [],
                        "categories_nodes": [],
                        "categories_segments": [],
                        "categories_sizes": [],
                        "default_left": [
                            1,
                            1,
                            1,
                            1,
                            1,
                            1,
                            1,
                            1,
                            0,
                            1,
                            0,
                            1,
                            1,
                            0,
                            1,
                            1,
                            1,
                            1,
                            0,
                            1,
                            0,
                            0,
                            0,
                            1,
                            1,
                            1,
                            0,
                            1,
                            1,
                            0,
                            0,
                            0,
                            0,
                            0,
                            0,
                            0,
                            0,
                            0,
                            0,
                            0,
                            0,
                            0,
                            0
                        ],
                        "id": 2,
                        "left_children": [
                            1,
                            3,
                            5,
                            7,
                            9,
                            11,
                            13,
                            15,
                            -1,
                            17,
                            -1,
                            19,
                            21,
                            -1,
                            23,
                            25,
                            27,
                            29,
                            -1,
                            31,
                            -1,
                            -1,
                            -1,
                            33,
                            35,
                            37,
                            -1,
                            39,
                            41,
                            -1,
                            -1,
                            -1,
                            -1,
                            -1,
                            -1,
                            -1,
                            -1,
                            -1,
                            -1,
                            -1,
                            -1,
                            -1,
                            -1
                        ],
                        "loss_changes": [
                            3.9592896E0,
                            1.6596375E0,
                            2.3954706E0,
                            3.981861E0,
                            1.4104309E0,
                            1.2116356E0,
                            2.6458147E0,
                            1.4275169E0,
                            0E0,
                            6.234131E-1,
                            0E0,
                            7.605505E-1,
                            2.9745622E0,
                            0E0,
                            7.3078084E-1,
                            3.8206863E-1,
                            2.7561293E0,
                            1.0428457E0,
                            0E0,
                            1.8961433E0,
                            0E0,
                            0E0,
                            0E0,
                            6.965492E-1,
                            2.222551E0,
                            4.5645523E-1,
                            0E0,
                            3.1552432E0,
                            3.4508247E0,
                            0E0,
                            0E0,
                            0E0,
                            0E0,
                            0E0,
                            0E0,
                            0E0,
                            0E0,
                            0E0,
                            0E0,
                            0E0,
                            0E0,
                            0E0,
                            0E0
                        ],
                        "parents": [
                            2147483647,
                            0,
                            0,
                            1,
                            1,
                            2,
                            2,
                            3,
                            3,
                            4,
                            4,
                            5,
                            5,
                            6,
                            6,
                            7,
                            7,
                            9,
                            9,
                            11,
                            11,
                            12,
                            12,
                            14,
                            14,
                            15,
                            15,
                            16,
                            16,
                            17,
                            17,
                            19,
                            19,
                            23,
                            23,
                            24,
                            24,
                            25,
                            25,
                            27,
                            27,
                            28,
                            28
                        ],
                        "right_children": [
                            2,
                            4,
                            6,
                            8,
                            10,
                            12,
                            14,
                            16,
                            -1,
                            18,
                            -1,
                            20,
                            22,
                            -1,
                            24,
                            26,
                            28,
                            30,
                            -1,
                            32,
                            -1,
                            -1,
                            -1,
                            34,
                            36,
                            38,
                            -1,
                            40,
                            42,
                            -1,
                            -1,
                            -1,
                            -1,
                            -1,
                            -1,
                            -1,
                            -1,
                            -1,
                            -1,
                            -1,
                            -1,
                            -1,
                            -1
                        ],
                        "split_conditions": [
                            4.8804963E-1,
                            1E0,
                            1.2423E0,
                            1.275E2,
                            1.945E2,
                            1.5900362E0,
                            7.5119995E1,
                            2.8447145E-1,
                            1.635358E-1,
                            1.75E1,
                            -6.1261393E-2,
                            -5.98819E-1,
                            7.8767264E-1,
                            2.2896546E-1,
                            1.416E1,
                            1.6683187E0,
                            7.869E1,
                            9.5E0,
                            -3.8328826E-1,
                            1.5E0,
                            -3.792187E-1,
                            -2.5409782E-1,
                            1.8032567E-1,
                            1.3219999E1,
                            1.5E0,
                            1.323E2,
                            -7.360948E-2,
                            8.3180207E-1,
                            7.246E1,
                            -2.5257498E-1,
                            5.815286E-2,
                            -2.7450895E-1,
                            1.16805315E-1,
                            -1.3094082E-2,
                            -3.084346E-1,
                            -2.2776312E-1,
                            2.0370121E-1,
                            -3.773236E-1,
                            -1.6957629E-1,
                            -2.1895383E-1,
                            2.1652484E-1,
                            -3.3024284E-1,
                            2.061263E-2
                        ],
                        "split_indices": [
                            12,
                            16,
                            0,
                            5,
                            4,
                            12,
                            4,
                            0,
                            0,
                            10,
                            0,
                            6,
                            17,
                            0,
                            9,
                            6,
                            4,
                            9,
                            0,
                            13,
                            0,
                            0,
                            0,
                            9,
                            13,
                            7,
                            0,
                            0,
                            5,
                            0,
                            0,
                            0,
                            0,
                            0,
                            0,
                            0,
                            0,
                            0,
                            0,
                            0,
                            0,
                            0,
                            0
                        ],
                        "split_type": [
                            0,
                            0,
                            0,
                            0,
                            0,
                            0,
                            0,
                            0,
                            0,
                            0,
                            0,
                            0,
                            0,
                            0,
                            0,
                            0,
                            0,
                            0,
                            0,
                            0,
                            0,
                            0,
                            0,
                            0,
                            0,
                            0,
                            0,
                            0,
                            0,
                            0,
                            0,
                            0,
                            0,
                            0,
                            0,
                            0,
                            0,
                            0,
                            0,
                            0,
                            0,
                            0,
                            0
                        ],
                        "sum_hessian": [
                            2.1106114E2,
                            1.9109535E2,
                            1.9965786E1,
                            5.2682076E1,
                            1.3841327E2,
                            1.3473635E1,
                            6.4921503E0,
                            5.1585857E1,
                            1.0962205E0,
                            1.3672456E2,
                            1.6887059E0,
                            9.397466E0,
                            4.076169E0,
                            1.4566157E0,
                            5.035535E0,
                            3.0680744E1,
                            2.0905113E1,
                            2.6424081E0,
                            1.3408215E2,
                            2.845573E0,
                            6.551893E0,
                            2.641372E0,
                            1.4347969E0,
                            2.7317724E0,
                            2.3037624E0,
                            2.9659103E1,
                            1.0216401E0,
                            3.991255E0,
                            1.6913857E1,
                            1.582961E0,
                            1.0594473E0,
                            1.6867257E0,
                            1.1588473E0,
                            1.1185668E0,
                            1.6132056E0,
                            1.077025E0,
                            1.2267375E0,
                            2.6176563E1,
                            3.4825404E0,
                            1.9485468E0,
                            2.0427084E0,
                            1.401746E1,
                            2.8963978E0
                        ],
                        "tree_param": {
                            "num_deleted": "0",
                            "num_feature": "21",
                            "num_nodes": "43",
                            "size_leaf_vector": "0"
                        }
                    },
                    {
                        "base_weights": [
                            -9.8697144E-1,
                            -1.1431582E0,
                            -8.078518E-1,
                            -1.1509227E0,
                            -2.167897E-1,
                            -9.5381156E-2,
                            -1.2030891E0,
                            -5.8720475E-1,
                            -1.1715126E0,
                            -9.6709436E-1,
                            4.2461357E-1,
                            -9.6899873E-1,
                            3.23717E-1,
                            -1.1785122E0,
                            -3.1849992E-1,
                            -1.0907261E0,
                            -1.4890486E-1,
                            9.847415E-1,
                            1.293135E-1,
                            -1.1663159E0,
                            -2.4422924E-1,
                            1.4656955E-1,
                            1.2684995E0,
                            -3.0490574E-1,
                            6.652218E-1,
                            -7.2491795E-1,
                            5.9960043E-1,
                            9.50323E-1,
                            -4.0629992E-1
                        ],
                        "categories": [],
                        "categories_nodes": [],
                        "categories_segments": [],
                        "categories_sizes": [],
                        "default_left": [
                            1,
                            1,
                            1,
                            1,
                            0,
                            1,
                            0,
                            1,
                            1,
                            1,
                            1,
                            0,
                            0,
                            0,
                            0,
                            1,
                            0,
                            1,
                            1,
                            0,
                            0,
                            0,
                            0,
                            1,
                            1,
                            0,
                            0,
                            0,
                            0
                        ],
                        "id": 3,
                        "left_children": [
                            1,
                            3,
                            5,
                            7,
                            -1,
                            9,
                            -1,
                            11,
                            13,
                            15,
                            17,
                            -1,
                            -1,
                            -1,
                            -1,
                            19,
                            -1,
                            21,
                            23,
                            -1,
                            -1,
                            -1,
                            -1,
                            25,
                            27,
                            -1,
                            -1,
                            -1,
                            -1
                        ],
                        "loss_changes": [
                            4.090683E0,
                            4.2183685E-1,
                            2.4354664E1,
                            3.8372803E-1,
                            0E0,
                            1.4957083E1,
                            0E0,
                            2.1424732E0,
                            1.5048218E-1,
                            1.0813313E0,
                            3.312362E0,
                            0E0,
                            0E0,
                            0E0,
                            0E0,
                            3.8850784E-1,
                            0E0,
                            1.485506E0,
                            3.6393518E0,
                            0E0,
                            0E0,
                            0E0,
                            0E0,
                            3.7943995E0,
                            2.5014257E0,
                            0E0,
                            0E0,
                            0E0,
                            0E0
                        ],
                        "parents": [
                            2147483647,
                            0,
                            0,
                            1,
                            1,
                            2,
                            2,
                            3,
                            3,
                            5,
                            5,
                            7,
                            7,
                            8,
                            8,
                            9,
                            9,
                            10,
                            10,
                            15,
                            15,
                            17,
                            17,
                            18,
                            18,
                            23,
                            23,
                            24,
                            24
                        ],
                        "right_children": [
                            2,
                            4,
                            6,
                            8,
                            -1,
                            10,
                            -1,
                            12,
                            14,
                            16,
                            18,
                            -1,
                            -1,
                            -1,
                            -1,
                            20,
                            -1,
                            22,
                            24,
                            -1,
                            -1,
                            -1,
                            -1,
                            26,
                            28,
                            -1,
                            -1,
                            -1,
                            -1
                        ],
                        "split_conditions": [
                            1.5E0,
                            1.4265814E0,
                            3E0,
                            1.85E1,
                            -6.503691E-2,
                            -2.628592E-1,
                            -3.6092675E-1,
                            1.35E1,
                            2.565E2,
                            8.475679E-1,
                            2.036983E-1,
                            -2.9069963E-1,
                            9.711511E-2,
                            -3.5355368E-1,
                            -9.554998E-2,
                            1.141E1,
                            -4.467146E-2,
                            8.122E1,
                            8.3180207E-1,
                            -3.498948E-1,
                            -7.326878E-2,
                            4.3970868E-2,
                            3.8054988E-1,
                            6.209E1,
                            9.4520004E1,
                            -2.174754E-1,
                            1.7988014E-1,
                            2.850969E-1,
                            -1.2188998E-1
                        ],
                        "split_indices": [
                            13,
                            12,
                            13,
                            4,
                            0,
                            0,
                            0,
                            4,
                            7,
                            6,
                            14,
                            0,
                            0,
                            0,
                            0,
                            8,
                            0,
                            4,
                            0,
                            0,
                            0,
                            0,
                            0,
                            11,
                            4,
                            0,
                            0,
                            0,
                            0
                        ],
                        "split_type": [
                            0,
                            0,
                            0,
                            0,
                            0,
                            0,
                            0,
                            0,
                            0,
                            0,
                            0,
                            0,
                            0,
                            0,
                            0,
                            0,
                            0,
                            0,
                            0,
                            0,
                            0,
                            0,
                            0,
                            0,
                            0,
                            0,
                            0,
                            0,
                            0
                        ],
                        "sum_hessian": [
                            1.7823128E2,
                            9.233552E1,
                            8.589576E1,
                            9.132764E1,
                            1.0078799E0,
                            3.109107E1,
                            5.4804688E1,
                            4.2584066E0,
                            8.706923E1,
                            1.129554E1,
                            1.979553E1,
                            2.9557915E0,
                            1.3026149E0,
                            8.5982086E1,
                            1.0871457E0,
                            9.523416E0,
                            1.772124E0,
                            6.0276017E0,
                            1.3767928E1,
                            8.395873E0,
                            1.1275424E0,
                            1.9080579E0,
                            4.119544E0,
                            7.843659E0,
                            5.9242687E0,
                            5.491978E0,
                            2.3516808E0,
                            4.7685924E0,
                            1.1556765E0
                        ],
                        "tree_param": {
                            "num_deleted": "0",
                            "num_feature": "21",
                            "num_nodes": "29",
                            "size_leaf_vector": "0"
                        }
                    },
                    {
                        "base_weights": [
                            -8.831769E-1,
                            -1.0337307E0,
                            -6.966204E-1,
                            -1.0434647E0,
                            -1.7887028E-1,
                            -9.366583E-1,
                            -4.417364E-1,
                            -1.0919087E0,
                            -7.626759E-1,
                            -1.7669037E-1,
                            -9.890692E-1,
                            1.6471243E-1,
                            -1.0774736E0,
                            -4.2743835E-1,
                            -1.1030566E0,
                            -8.675799E-1,
                            3.3045033E-1,
                            4.1341892E-1,
                            -6.707737E-1,
                            -1.0245576E0,
                            -3.1818113E-1,
                            -3.252539E-1,
                            6.9936424E-1,
                            -1.1280288E0,
                            -1.9625923E-1,
                            -2.3775096E-1,
                            -9.4331837E-1,
                            -5.508518E-1,
                            -1.0762151E0,
                            -6.684572E-1,
                            1.8215524E-1,
                            -7.1663976E-1,
                            5.374169E-1,
                            4.719553E-3,
                            9.964307E-1,
                            -1.0450462E0,
                            -2.993278E-1,
                            -8.6644113E-1,
                            1.6450122E-1,
                            -1.1022165E0,
                            -3.9855716E-1,
                            -9.243398E-1,
                            1.3154115E-1,
                            -1.2645002E-1,
                            8.6215234E-1,
                            4.323608E-1,
                            -5.344934E-1,
                            1.2815086E0,
                            -2.2380678E-1
                        ],
                        "categories": [],
                        "categories_nodes": [],
                        "categories_segments": [],
                        "categories_sizes": [],
                        "default_left": [
                            1,
                            1,
                            1,
                            1,
                            0,
                            1,
                            1,
                            1,
                            1,
                            1,
                            1,
                            1,
                            1,
                            0,
                            0,
                            1,
                            0,
                            0,
                            0,
                            1,
                            1,
                            1,
                            1,
                            0,
                            0,
                            0,
                            1,
                            1,
                            1,
                            0,
                            0,
                            1,
                            1,
                            1,
                            1,
                            0,
                            0,
                            0,
                            0,
                            0,
                            0,
                            0,
                            0,
                            0,
                            0,
                            0,
                            0,
                            0,
                            0
                        ],
                        "id": 4,
                        "left_children": [
                            1,
                            3,
                            5,
                            7,
                            -1,
                            9,
                            11,
                            13,
                            15,
                            17,
                            19,
                            21,
                            23,
                            -1,
                            -1,
                            25,
                            -1,
                            -1,
                            -1,
                            27,
                            29,
                            31,
                            33,
                            -1,
                            -1,
                            -1,
                            35,
                            37,
                            39,
                            -1,
                            -1,
                            41,
                            43,
                            45,
                            47,
                            -1,
                            -1,
                            -1,
                            -1,
                            -1,
                            -1,
                            -1,
                            -1,
                            -1,
                            -1,
                            -1,
                            -1,
                            -1,
                            -1
                        ],
                        "loss_changes": [
                            3.4253387E0,
                            4.7582245E-1,
                            3.8067055E0,
                            2.3514557E-1,
                            0E0,
                            1.2047043E0,
                            1.3806023E1,
                            7.331848E-3,
                            1.9917135E0,
                            1.2837495E0,
                            4.402027E-1,
                            5.193909E0,
                            5.5335236E-1,
                            0E0,
                            0E0,
                            4.3603802E-1,
                            0E0,
                            0E0,
                            0E0,
                            1.4407158E-1,
                            6.5931404E-1,
                            3.95575E0,
                            1.9316058E0,
                            0E0,
                            0E0,
                            0E0,
                            4.7460938E-1,
                            1.2734767E0,
                            2.066803E-2,
                            0E0,
                            0E0,
                            1.4786634E0,
                            9.437418E-1,
                            1.1109178E0,
                            2.5715108E0,
                            0E0,
                            0E0,
                            0E0,
                            0E0,
                            0E0,
                            0E0,
                            0E0,
                            0E0,
                            0E0,
                            0E0,
                            0E0,
                            0E0,
                            0E0,
                            0E0
                        ],
                        "parents": [
                            2147483647,
                            0,
                            0,
                            1,
                            1,
                            2,
                            2,
                            3,
                            3,
                            5,
                            5,
                            6,
                            6,
                            7,
                            7,
                            8,
                            8,
                            9,
                            9,
                            10,
                            10,
                            11,
                            11,
                            12,
                            12,
                            15,
                            15,
                            19,
                            19,
                            20,
                            20,
                            21,
                            21,
                            22,
                            22,
                            26,
                            26,
                            27,
                            27,
                            28,
                            28,
                            31,
                            31,
                            32,
                            32,
                            33,
                            33,
                            34,
                            34
                        ],
                        "right_children": [
                            2,
                            4,
                            6,
                            8,
                            -1,
                            10,
                            12,
                            14,
                            16,
                            18,
                            20,
                            22,
                            24,
                            -1,
                            -1,
                            26,
                            -1,
                            -1,
                            -1,
                            28,
                            30,
                            32,
                            34,
                            -1,
                            -1,
                            -1,
                            36,
                            38,
                            40,
                            -1,
                            -1,
                            42,
                            44,
                            46,
                            48,
                            -1,
                            -1,
                            -1,
                            -1,
                            -1,
                            -1,
                            -1,
                            -1,
                            -1,
                            -1,
                            -1,
                            -1,
                            -1,
                            -1
                        ],
                        "split_conditions": [
                            -1.9217548E-1,
                            2.5847988E0,
                            1.5E0,
                            5.5813676E-1,
                            -5.3661086E-2,
                            1.9E1,
                            3E0,
                            2.5E0,
                            1.626E1,
                            1.5E0,
                            2.3280663E0,
                            7.633858E-1,
                            1.75E1,
                            -1.2823151E-1,
                            -3.3091697E-1,
                            1.353E1,
                            9.91351E-2,
                            1.2402568E-1,
                            -2.0123212E-1,
                            -1.5220557E-1,
                            -2.6156503E-1,
                            8.72E1,
                            -4.959889E-1,
                            -3.3840865E-1,
                            -5.887777E-2,
                            -7.1325295E-2,
                            1.143E1,
                            -1.7482755E-1,
                            2.315E2,
                            -2.0053717E-1,
                            5.4646574E-2,
                            1.153E1,
                            3.6739998E1,
                            6.733E1,
                            2.0713341E0,
                            -3.1351388E-1,
                            -8.979834E-2,
                            -2.5993234E-1,
                            4.935037E-2,
                            -3.3066496E-1,
                            -1.1956715E-1,
                            -2.7730194E-1,
                            3.9462347E-2,
                            -3.7935007E-2,
                            2.586457E-1,
                            1.2970825E-1,
                            -1.6034803E-1,
                            3.8445258E-1,
                            -6.714204E-2
                        ],
                        "split_indices": [
                            12,
                            17,
                            13,
                            0,
                            0,
                            4,
                            13,
                            9,
                            9,
                            15,
                            17,
                            0,
                            8,
                            0,
                            0,
                            9,
                            0,
                            0,
                            0,
                            12,
                            6,
                            4,
                            17,
                            0,
                            0,
                            0,
                            8,
                            12,
                            7,
                            0,
                            0,
                            8,
                            5,
                            5,
                            17,
                            0,
                            0,
                            0,
                            0,
                            0,
                            0,
                            0,
                            0,
                            0,
                            0,
                            0,
                            0,
                            0,
                            0
                        ],
                        "split_type": [
                            0,
                            0,
                            0,
                            0,
                            0,
                            0,
                            0,
                            0,
                            0,
                            0,
                            0,
                            0,
                            0,
                            0,
                            0,
                            0,
                            0,
                            0,
                            0,
                            0,
                            0,
                            0,
                            0,
                            0,
                            0,
                            0,
                            0,
                            0,
                            0,
                            0,
                            0,
                            0,
                            0,
                            0,
                            0,
                            0,
                            0,
                            0,
                            0,
                            0,
                            0,
                            0,
                            0,
                            0,
                            0,
                            0,
                            0,
                            0,
                            0
                        ],
                        "sum_hessian": [
                            1.465945E2,
                            7.8612206E1,
                            6.798229E1,
                            7.750902E1,
                            1.1031896E0,
                            3.3633232E1,
                            3.434906E1,
                            6.3640514E1,
                            1.3868501E1,
                            2.4518728E0,
                            3.1181358E1,
                            1.7958662E1,
                            1.6390396E1,
                            1.6992422E0,
                            6.1941273E1,
                            1.2842387E1,
                            1.0261134E0,
                            1.1917568E0,
                            1.2601161E0,
                            2.9114122E1,
                            2.0672355E0,
                            9.575303E0,
                            8.383359E0,
                            1.5236213E1,
                            1.1541835E0,
                            1.8228635E0,
                            1.1019524E1,
                            4.0095553E0,
                            2.5104568E1,
                            1.018316E0,
                            1.0489194E0,
                            6.7033377E0,
                            2.8719654E0,
                            2.8155384E0,
                            5.567821E0,
                            8.978476E0,
                            2.041049E0,
                            2.6356077E0,
                            1.3739479E0,
                            2.3573557E1,
                            1.5310105E0,
                            5.312611E0,
                            1.3907268E0,
                            1.1439528E0,
                            1.7280127E0,
                            1.6807361E0,
                            1.1348022E0,
                            4.472679E0,
                            1.0951416E0
                        ],
                        "tree_param": {
                            "num_deleted": "0",
                            "num_feature": "21",
                            "num_nodes": "49",
                            "size_leaf_vector": "0"
                        }
                    },
                    {
                        "base_weights": [
                            -7.936605E-1,
                            -9.6919316E-1,
                            -6.051309E-1,
                            -4.3584105E-1,
                            -9.9351966E-1,
                            -4.0331664E-3,
                            -1.0474435E0,
                            -8.302865E-1,
                            3.25711E-1,
                            -1.0049963E0,
                            -2.027021E-1,
                            -7.3539674E-1,
                            3.3934394E-1,
                            -1.0704547E0,
                            -2.2994769E-1,
                            -1.0141256E0,
                            -2.646872E-1,
                            1.722082E-1,
                            -8.9212745E-1,
                            -4.4921803E-1,
                            4.2624632E-1,
                            -9.8104537E-1,
                            -1.6681916E-1,
                            8.4634894E-1,
                            1.8224238E-1,
                            1.0376189E0,
                            1.427508E-1,
                            -1.24972194E-1,
                            5.979407E-1
                        ],
                        "categories": [],
                        "categories_nodes": [],
                        "categories_segments": [],
                        "categories_sizes": [],
                        "default_left": [
                            1,
                            1,
                            1,
                            1,
                            1,
                            1,
                            1,
                            0,
                            0,
                            1,
                            0,
                            1,
                            1,
                            0,
                            0,
                            0,
                            0,
                            0,
                            1,
                            0,
                            1,
                            0,
                            0,
                            1,
                            1,
                            0,
                            0,
                            0,
                            0
                        ],
                        "id": 5,
                        "left_children": [
                            1,
                            3,
                            5,
                            7,
                            9,
                            11,
                            13,
                            -1,
                            -1,
                            15,
                            -1,
                            17,
                            19,
                            -1,
                            -1,
                            -1,
                            -1,
                            -1,
                            21,
                            -1,
                            23,
                            -1,
                            -1,
                            25,
                            27,
                            -1,
                            -1,
                            -1,
                            -1
                        ],
                        "loss_changes": [
                            3.4655685E0,
                            3.6810684E-1,
                            1.6399784E1,
                            1.6146617E0,
                            3.251419E-1,
                            7.069977E0,
                            4.2241287E-1,
                            0E0,
                            0E0,
                            1.1805344E-1,
                            0E0,
                            1.4328599E0,
                            1.5048649E0,
                            0E0,
                            0E0,
                            0E0,
                            0E0,
                            0E0,
                            3.4134674E-1,
                            0E0,
                            1.6679556E0,
                            0E0,
                            0E0,
                            6.9391775E-1,
                            1.6735667E0,
                            0E0,
                            0E0,
                            0E0,
                            0E0
                        ],
                        "parents": [
                            2147483647,
                            0,
                            0,
                            1,
                            1,
                            2,
                            2,
                            3,
                            3,
                            4,
                            4,
                            5,
                            5,
                            6,
                            6,
                            9,
                            9,
                            11,
                            11,
                            12,
                            12,
                            18,
                            18,
                            20,
                            20,
                            23,
                            23,
                            24,
                            24
                        ],
                        "right_children": [
                            2,
                            4,
                            6,
                            8,
                            10,
                            12,
                            14,
                            -1,
                            -1,
                            16,
                            -1,
                            18,
                            20,
                            -1,
                            -1,
                            -1,
                            -1,
                            -1,
                            22,
                            -1,
                            24,
                            -1,
                            -1,
                            26,
                            28,
                            -1,
                            -1,
                            -1,
                            -1
                        ],
                        "split_conditions": [
                            1.5E0,
                            1.85E1,
                            3E0,
                            1.35E1,
                            1.1993151E0,
                            -2.628592E-1,
                            1.34E2,
                            -2.4908596E-1,
                            9.771331E-2,
                            2.555E2,
                            -6.0810633E-2,
                            -2.1731572E0,
                            -1.4654574E0,
                            -3.2113642E-1,
                            -6.898431E-2,
                            -3.042377E-1,
                            -7.9406165E-2,
                            5.1662464E-2,
                            1.132E1,
                            -1.3476542E-1,
                            2.036983E-1,
                            -2.943136E-1,
                            -5.0045747E-2,
                            1.0370511E0,
                            8.3180207E-1,
                            3.1128567E-1,
                            4.282524E-2,
                            -3.749166E-2,
                            1.793822E-1
                        ],
                        "split_indices": [
                            13,
                            4,
                            13,
                            4,
                            12,
                            0,
                            5,
                            0,
                            0,
                            7,
                            0,
                            14,
                            6,
                            0,
                            0,
                            0,
                            0,
                            0,
                            8,
                            0,
                            14,
                            0,
                            0,
                            0,
                            0,
                            0,
                            0,
                            0,
                            0
                        ],
                        "split_type": [
                            0,
                            0,
                            0,
                            0,
                            0,
                            0,
                            0,
                            0,
                            0,
                            0,
                            0,
                            0,
                            0,
                            0,
                            0,
                            0,
                            0,
                            0,
                            0,
                            0,
                            0,
                            0,
                            0,
                            0,
                            0,
                            0,
                            0,
                            0,
                            0
                        ],
                        "sum_hessian": [
                            1.2144419E2,
                            6.074556E1,
                            6.069863E1,
                            3.4749324E0,
                            5.727063E1,
                            2.6158562E1,
                            3.454007E1,
                            2.2297692E0,
                            1.2451632E0,
                            5.618443E1,
                            1.0861989E0,
                            7.992841E0,
                            1.816572E1,
                            3.329348E1,
                            1.2465904E0,
                            5.5134655E1,
                            1.049774E0,
                            1.1624584E0,
                            6.8303823E0,
                            1.3893528E0,
                            1.6776367E1,
                            5.7703815E0,
                            1.0600007E0,
                            5.25692E0,
                            1.1519448E1,
                            3.7600381E0,
                            1.4968817E0,
                            7.026215E0,
                            4.493233E0
                        ],
                        "tree_param": {
                            "num_deleted": "0",
                            "num_feature": "21",
                            "num_nodes": "29",
                            "size_leaf_vector": "0"
                        }
                    },
                    {
                        "base_weights": [
                            -7.146514E-1,
                            -9.694967E-1,
                            -5.7578945E-1,
                            -4.251587E-1,
                            -1.0091443E0,
                            -8.044959E-1,
                            -3.2213703E-1,
                            -7.964963E-1,
                            3.5302028E-1,
                            -1.1639185E-1,
                            -8.4628934E-1,
                            2.6772732E-1,
                            -9.774782E-1,
                            1.9995306E-1,
                            -3.7861985E-1,
                            -8.699743E-2,
                            -8.691379E-1,
                            -3.70645E-1,
                            3.4086776E-1,
                            -1.066104E-1,
                            -1.030881E0,
                            -9.507254E-1,
                            -4.303028E-1,
                            7.051154E-1,
                            1.4105968E-1,
                            -9.7796345E-1,
                            -1.3952759E-1,
                            4.3543422E-1,
                            -7.7088684E-1,
                            1.676E-1,
                            9.81059E-1,
                            4.0588614E-1,
                            -2.451295E-1
                        ],
                        "categories": [],
                        "categories_nodes": [],
                        "categories_segments": [],
                        "categories_sizes": [],
                        "default_left": [
                            1,
                            1,
                            1,
                            1,
                            0,
                            1,
                            1,
                            0,
                            0,
                            1,
                            1,
                            1,
                            1,
                            0,
                            0,
                            0,
                            1,
                            0,
                            1,
                            0,
                            0,
                            1,
                            1,
                            1,
                            1,
                            0,
                            0,
                            0,
                            0,
                            0,
                            0,
                            0,
                            0
                        ],
                        "id": 6,
                        "left_children": [
                            1,
                            3,
                            5,
                            7,
                            -1,
                            9,
                            11,
                            -1,
                            -1,
                            13,
                            15,
                            17,
                            19,
                            -1,
                            -1,
                            -1,
                            21,
                            -1,
                            23,
                            -1,
                            -1,
                            25,
                            27,
                            29,
                            31,
                            -1,
                            -1,
                            -1,
                            -1,
                            -1,
                            -1,
                            -1,
                            -1
                        ],
                        "loss_changes": [
                            3.0161476E0,
                            3.0822754E-1,
                            3.6765022E0,
                            1.4507272E0,
                            0E0,
                            9.082527E-1,
                            1.3340906E1,
                            0E0,
                            0E0,
                            3.381718E-1,
                            4.9418068E-1,
                            9.944118E-1,
                            6.4549637E-1,
                            0E0,
                            0E0,
                            0E0,
                            7.284813E-1,
                            0E0,
                            1.1524662E0,
                            0E0,
                            0E0,
                            4.3725586E-1,
                            2.3430297E0,
                            7.0228195E-1,
                            1.3634176E0,
                            0E0,
                            0E0,
                            0E0,
                            0E0,
                            0E0,
                            0E0,
                            0E0,
                            0E0
                        ],
                        "parents": [
                            2147483647,
                            0,
                            0,
                            1,
                            1,
                            2,
                            2,
                            3,
                            3,
                            5,
                            5,
                            6,
                            6,
                            9,
                            9,
                            10,
                            10,
                            11,
                            11,
                            12,
                            12,
                            16,
                            16,
                            18,
                            18,
                            21,
                            21,
                            22,
                            22,
                            23,
                            23,
                            24,
                            24
                        ],
                        "right_children": [
                            2,
                            4,
                            6,
                            8,
                            -1,
                            10,
                            12,
                            -1,
                            -1,
                            14,
                            16,
                            18,
                            20,
                            -1,
                            -1,
                            -1,
                            22,
                            -1,
                            24,
                            -1,
                            -1,
                            26,
                            28,
                            30,
                            32,
                            -1,
                            -1,
                            -1,
                            -1,
                            -1,
                            -1,
                            -1,
                            -1
                        ],
                        "split_conditions": [
                            -2.628592E-1,
                            -2.1731572E0,
                            1.5E0,
                            -7.417735E-1,
                            -3.0274332E-1,
                            1.85E1,
                            3E0,
                            -2.389489E-1,
                            1.0590609E-1,
                            1.7E1,
                            -1.9444287E-1,
                            -1.4654574E0,
                            -1.2602696E0,
                            5.998592E-2,
                            -1.1358596E-1,
                            -2.609923E-2,
                            7.299E1,
                            -1.111935E-1,
                            2.036983E-1,
                            -3.1983122E-2,
                            -3.0926433E-1,
                            1.0211656E0,
                            1E0,
                            6.459E1,
                            -1.8619859E-1,
                            -2.9338905E-1,
                            -4.185828E-2,
                            1.3063027E-1,
                            -2.3126607E-1,
                            5.0280005E-2,
                            2.9431772E-1,
                            1.21765845E-1,
                            -7.3538855E-2
                        ],
                        "split_indices": [
                            0,
                            14,
                            13,
                            0,
                            0,
                            4,
                            13,
                            0,
                            0,
                            5,
                            0,
                            6,
                            6,
                            0,
                            0,
                            0,
                            5,
                            0,
                            14,
                            0,
                            0,
                            12,
                            16,
                            5,
                            17,
                            0,
                            0,
                            0,
                            0,
                            0,
                            0,
                            0,
                            0
                        ],
                        "split_type": [
                            0,
                            0,
                            0,
                            0,
                            0,
                            0,
                            0,
                            0,
                            0,
                            0,
                            0,
                            0,
                            0,
                            0,
                            0,
                            0,
                            0,
                            0,
                            0,
                            0,
                            0,
                            0,
                            0,
                            0,
                            0,
                            0,
                            0,
                            0,
                            0,
                            0,
                            0,
                            0,
                            0
                        ],
                        "sum_hessian": [
                            1.0000432E2,
                            3.3162098E1,
                            6.684222E1,
                            3.04734E0,
                            3.011476E1,
                            3.4007557E1,
                            3.2834663E1,
                            2.0469985E0,
                            1.0003414E0,
                            2.1639714E0,
                            3.1843586E1,
                            1.7591892E1,
                            1.524277E1,
                            1.0884174E0,
                            1.0755541E0,
                            1.0706847E0,
                            3.0772902E1,
                            1.390241E0,
                            1.620165E1,
                            1.0538247E0,
                            1.4188946E1,
                            2.4964975E1,
                            5.8079257E0,
                            4.8433394E0,
                            1.1358311E1,
                            2.3955044E1,
                            1.0099317E0,
                            1.5611405E0,
                            4.246785E0,
                            2.1882265E0,
                            2.655113E0,
                            6.7076116E0,
                            4.6506996E0
                        ],
                        "tree_param": {
                            "num_deleted": "0",
                            "num_feature": "21",
                            "num_nodes": "33",
                            "size_leaf_vector": "0"
                        }
                    },
                    {
                        "base_weights": [
                            -6.3833565E-1,
                            -9.081894E-1,
                            -5.015957E-1,
                            -3.649762E-1,
                            -9.551507E-1,
                            -3.7300065E-1,
                            -9.224616E-1,
                            -7.304552E-1,
                            3.0281413E-1,
                            -9.8669505E-1,
                            -3.1077054E-1,
                            -7.2368705E-1,
                            2.0951663E-1,
                            -9.861697E-1,
                            -8.172247E-2,
                            -1.0054668E-1,
                            -7.6921475E-1,
                            8.092858E-2,
                            6.641419E-1,
                            1.7956793E-1,
                            -3.393195E-1,
                            -8.110783E-1,
                            -1.3067876E-1,
                            -2.7079353E-1,
                            5.247491E-1,
                            9.3967146E-1,
                            -7.262267E-3,
                            -8.333757E-1,
                            -1.4398119E-1,
                            -5.251253E-1,
                            3.5607988E-1,
                            -1.0707572E-1,
                            9.811633E-1
                        ],
                        "categories": [],
                        "categories_nodes": [],
                        "categories_segments": [],
                        "categories_sizes": [],
                        "default_left": [
                            1,
                            1,
                            1,
                            1,
                            1,
                            1,
                            1,
                            0,
                            0,
                            0,
                            0,
                            1,
                            1,
                            0,
                            0,
                            1,
                            1,
                            1,
                            1,
                            0,
                            0,
                            1,
                            0,
                            1,
                            1,
                            0,
                            0,
                            0,
                            0,
                            0,
                            0,
                            0,
                            0
                        ],
